
#include <eml_net.h>
static const float motion_direct_model_layer_0_biases[20] = { -0.024303f, -0.064379f, 0.024890f, 0.014971f, 0.092709f, 0.039766f, -0.088052f, 0.078211f, -0.011817f, -0.007453f, 0.053705f, -0.089068f, -0.040602f, 0.065885f, -0.035501f, -0.050301f, 0.005889f, -0.005157f, 0.004274f, 0.117195f };
static const float motion_direct_model_layer_0_weights[2040] = { -0.092079f, -0.010697f, -0.163169f, -0.082173f, -0.010169f, -0.086123f, 0.066744f, -0.106156f, 0.147889f, 0.073869f, -0.053736f, 0.129291f, 0.126755f, -0.047065f, 0.078442f, 0.079026f, 0.031995f, -0.041054f, -0.021573f, 0.049068f, 0.155094f, 0.034275f, -0.088667f, 0.025700f, -0.087738f, 0.048136f, -0.046707f, -0.107011f, 0.049650f, 0.046106f, -0.087712f, 0.165837f, -0.021817f, -0.082733f, 0.032380f, -0.029328f, 0.114806f, -0.064512f, 0.121924f, 0.040542f, -0.039461f, 0.007788f, 0.000268f, -0.088800f, -0.003225f, 0.048891f, 0.039769f, -0.217715f, -0.111699f, -0.005982f, 0.029648f, 0.087167f, -0.023642f, -0.056405f, 0.042400f, -0.076429f, -0.097718f, 0.000588f, -0.033830f, -0.266148f, 0.121727f, 0.043066f, 0.038952f, -0.082547f, 0.082835f, -0.117267f, 0.034101f, 0.167276f, 0.003853f, -0.149738f, -0.002905f, -0.010208f, -0.052341f, -0.127807f, -0.082115f, -0.005591f, -0.163003f, -0.121692f, 0.224209f, -0.023499f, -0.105848f, 0.151231f, -0.107276f, -0.199833f, -0.108247f, -0.069853f, -0.070022f, 0.193018f, -0.032644f, -0.048052f, -0.065770f, -0.055814f, 0.047772f, 0.115555f, -0.055290f, 0.156890f, -0.079600f, -0.048523f, 0.189366f, 0.276954f, 0.046114f, 0.053182f, -0.137809f, -0.086839f, 0.213006f, 0.143972f, -0.093405f, -0.052395f, 0.106184f, -0.008131f, -0.140472f, 0.012463f, -0.225503f, 0.052452f, 0.139078f, -0.061282f, -0.019515f, -0.004720f, 0.069822f, 0.142479f, -0.018307f, 0.019962f, 0.018026f, -0.071963f, -0.058188f, -0.063383f, -0.005398f, -0.087756f, 0.004676f, -0.052358f, 0.018383f, -0.226678f, -0.102102f, 0.163749f, -0.016730f, -0.095146f, 0.112972f, -0.169096f, -0.011770f, 0.094157f, -0.022162f, 0.097951f, -0.154606f, -0.042873f, -0.090226f, 0.015116f, -0.058478f, -0.053255f, 0.141937f, -0.092493f, 0.145571f, -0.133243f, 0.053818f, 0.004976f, 0.057820f, 0.110141f, 0.042156f, -0.177403f, -0.084313f, -0.032594f, -0.164100f, -0.002012f, -0.146299f, -0.072230f, 0.186049f, -0.005444f, 0.088971f, 0.166255f, 0.022588f, -0.037442f, 0.070241f, -0.025007f, 0.133361f, -0.000708f, 0.156339f, -0.036628f, -0.055716f, -0.141629f, 0.084190f, 0.015057f, -0.072048f, -0.044153f, -0.153980f, -0.038563f, -0.070169f, -0.065449f, -0.140867f, 0.052327f, 0.142877f, -0.024377f, -0.009991f, 0.034579f, -0.023285f, -0.115562f, 0.086071f, 0.045111f, 0.192006f, -0.030467f, -0.060868f, -0.046650f, -0.160418f, 0.085185f, -0.102180f, 0.010094f, -0.155618f, 0.133951f, -0.007842f, 0.090690f, 0.232499f, -0.158083f, -0.038351f, 0.051824f, 0.034775f, 0.093164f, 0.156998f, 0.025527f, 0.037668f, -0.086492f, 0.044546f, -0.130200f, 0.023017f, -0.084047f, 0.100716f, -0.015756f, -0.116343f, -0.118520f, 0.145581f, 0.158533f, -0.069494f, 0.003351f, -0.029220f, -0.048867f, 0.061274f, 0.047221f, 0.026550f, -0.100401f, 0.253697f, 0.000007f, -0.051953f, -0.000437f, 0.136203f, -0.081636f, 0.181965f, -0.088745f, -0.159029f, -0.058630f, -0.044466f, -0.161037f, -0.043847f, -0.143131f, 0.104107f, 0.000647f, 0.160994f, -0.008505f, 0.085232f, 0.069871f, 0.184744f, 0.001913f, 0.085635f, -0.033304f, 0.004283f, 0.061006f, 0.109080f, 0.031913f, 0.059360f, -0.104687f, 0.109029f, 0.125230f, -0.084018f, -0.043160f, 0.005564f, -0.105529f, 0.086358f, -0.037796f, 0.029714f, -0.100361f, -0.036872f, -0.157095f, -0.032886f, -0.130375f, -0.031574f, 0.141545f, -0.111318f, 0.197736f, 0.114928f, 0.145092f, 0.143729f, -0.110308f, 0.165130f, -0.196450f, -0.164901f, -0.101991f, 0.006410f, 0.072434f, -0.149195f, 0.124056f, 0.014687f, -0.125035f, -0.049524f, -0.007787f, -0.159208f, -0.107028f, 0.164183f, 0.139206f, -0.113889f, -0.147083f, -0.019758f, 0.083023f, 0.162638f, -0.171017f, 0.027178f, 0.073581f, 0.078739f, -0.002806f, -0.159457f, 0.016905f, 0.050536f, 0.069029f, 0.003496f, -0.161355f, -0.154327f, 0.135008f, 0.118850f, -0.056828f, -0.125099f, -0.048906f, -0.048516f, 0.115758f, -0.041269f, -0.001076f, -0.165089f, 0.012730f, -0.099323f, -0.166772f, 0.007997f, -0.032145f, 0.062378f, -0.178286f, -0.127223f, -0.092111f, 0.022021f, -0.035011f, -0.152541f, -0.070986f, 0.015352f, 0.144666f, 0.005005f, -0.098436f, -0.002155f, 0.104064f, 0.118413f, -0.067687f, -0.028582f, -0.150969f, 0.159622f, -0.162531f, 0.008661f, -0.022793f, -0.027513f, 0.022260f, 0.034276f, 0.103440f, -0.044652f, 0.055660f, 0.099631f, 0.044227f, 0.035552f, 0.219488f, -0.150607f, -0.133424f, 0.114538f, 0.115348f, -0.082523f, -0.019023f, 0.081678f, 0.069363f, 0.006409f, -0.116389f, 0.038184f, -0.025371f, -0.134866f, -0.047437f, -0.048089f, 0.016486f, 0.182802f, 0.112345f, -0.141854f, -0.062992f, 0.150780f, 0.098573f, 0.009437f, -0.119087f, 0.115713f, 0.062262f, 0.040196f, 0.024446f, -0.095093f, 0.029834f, 0.122541f, 0.094796f, -0.013125f, 0.158409f, 0.015582f, -0.036740f, 0.110028f, 0.110942f, 0.078185f, -0.104112f, 0.216176f, -0.041157f, 0.162656f, -0.063709f, 0.120521f, -0.024375f, -0.033666f, 0.150499f, 0.006552f, 0.051781f, -0.157090f, 0.008406f, 0.010410f, -0.021257f, -0.099104f, -0.068509f, -0.100930f, -0.102797f, -0.157407f, -0.031574f, 0.058233f, -0.084041f, -0.029459f, -0.021903f, -0.068000f, -0.079475f, -0.093903f, 0.150052f, 0.200541f, -0.074350f, 0.116195f, -0.008096f, -0.047544f, 0.122010f, 0.150481f, -0.218949f, -0.005648f, 0.226416f, -0.054496f, -0.113962f, -0.145866f, -0.045509f, -0.000661f, 0.037987f, -0.012554f, -0.084424f, -0.084278f, 0.019643f, 0.223137f, -0.112880f, -0.068836f, -0.172807f, -0.049017f, -0.095173f, 0.072901f, -0.106001f, 0.141365f, 0.039287f, 0.066318f, 0.084529f, 0.019682f, 0.004578f, 0.041135f, 0.001606f, 0.181712f, 0.077782f, 0.085920f, 0.013365f, 0.060363f, -0.139096f, 0.129154f, -0.074959f, -0.131481f, 0.061981f, -0.081249f, -0.025344f, -0.104063f, -0.051848f, 0.030061f, -0.028861f, 0.077228f, -0.147920f, 0.103171f, 0.108136f, -0.028872f, -0.029545f, 0.094885f, -0.080022f, 0.110506f, -0.160954f, 0.088207f, 0.111160f, 0.015407f, 0.155360f, -0.070552f, 0.002306f, 0.094275f, -0.118644f, 0.110585f, 0.152195f, 0.125863f, -0.031289f, -0.151632f, -0.170591f, 0.026267f, -0.011708f, 0.005998f, -0.079418f, -0.065945f, -0.155783f, -0.083168f, -0.042613f, 0.019406f, -0.160554f, -0.049951f, 0.047819f, 0.089576f, -0.067036f, 0.061181f, -0.029524f, 0.043215f, 0.000775f, -0.019069f, 0.073736f, -0.084907f, 0.043557f, 0.025608f, -0.069895f, 0.077781f, 0.054651f, -0.091627f, 0.104924f, 0.034381f, 0.036443f, 0.049530f, -0.071911f, 0.038413f, 0.165896f, -0.054053f, 0.038974f, 0.098911f, 0.048697f, 0.043016f, -0.073493f, -0.022156f, 0.074888f, -0.084153f, 0.024704f, 0.158087f, 0.003484f, -0.062641f, -0.115987f, -0.057949f, -0.019318f, -0.152702f, 0.123375f, 0.033388f, -0.070332f, -0.125094f, 0.109065f, -0.085322f, -0.034797f, 0.009121f, 0.093452f, 0.154185f, 0.175733f, -0.090070f, -0.105975f, 0.123126f, -0.048690f, -0.076978f, -0.030619f, 0.108205f, -0.164245f, 0.027391f, -0.061724f, -0.049202f, 0.119676f, 0.046573f, 0.151021f, 0.071640f, -0.161532f, -0.061939f, 0.018195f, -0.127109f, 0.008266f, -0.018540f, -0.237285f, 0.080748f, -0.074082f, -0.041468f, 0.107804f, 0.080800f, 0.064703f, -0.009944f, -0.016881f, 0.084477f, 0.042639f, 0.164330f, -0.119078f, 0.097135f, 0.063625f, 0.008668f, 0.091963f, -0.046214f, -0.005453f, -0.032159f, -0.107546f, 0.196583f, 0.059742f, 0.097218f, 0.110104f, -0.090674f, 0.051698f, -0.002848f, -0.076683f, -0.053027f, 0.060241f, -0.060075f, 0.116539f, -0.007709f, 0.040367f, -0.075310f, -0.137194f, 0.056594f, -0.032667f, 0.112845f, -0.198275f, 0.241179f, -0.050047f, -0.061845f, -0.063515f, -0.138544f, 0.087303f, 0.019416f, -0.155763f, 0.088772f, 0.000259f, 0.213579f, -0.007121f, -0.000884f, -0.007261f, 0.063506f, -0.031315f, 0.034093f, 0.015273f, 0.049420f, -0.151639f, -0.137007f, -0.020192f, 0.060552f, -0.135461f, 0.017017f, 0.193554f, 0.145571f, -0.166496f, 0.006646f, -0.022802f, -0.010024f, 0.056908f, 0.007615f, -0.115422f, -0.010914f, 0.112085f, 0.192380f, -0.103920f, -0.185666f, 0.145818f, 0.053685f, 0.090245f, 0.020967f, 0.015536f, -0.050686f, -0.042838f, 0.153970f, 0.002403f, -0.189476f, -0.035381f, 0.031194f, -0.106745f, 0.060183f, 0.057423f, -0.076377f, 0.027625f, -0.031679f, -0.050990f, 0.050307f, -0.031036f, 0.181954f, -0.074836f, -0.083642f, -0.039248f, -0.091289f, 0.047089f, -0.140050f, -0.088328f, 0.009839f, -0.074555f, 0.208730f, 0.087486f, -0.041734f, 0.069713f, 0.081960f, 0.086792f, -0.096753f, -0.145356f, 0.139112f, -0.032117f, -0.016559f, -0.082898f, -0.053332f, -0.007333f, 0.112776f, 0.073108f, -0.113887f, -0.121933f, -0.015487f, -0.159315f, -0.006434f, -0.053624f, -0.002541f, 0.070244f, -0.181146f, 0.144884f, 0.278091f, -0.057982f, -0.004455f, -0.166367f, 0.068761f, 0.043736f, -0.107397f, -0.186915f, -0.183175f, 0.007232f, 0.270057f, -0.020086f, 0.132907f, 0.006308f, -0.030917f, -0.221143f, 0.049115f, 0.013789f, 0.194225f, 0.034586f, -0.114202f, 0.127956f, -0.029282f, 0.112394f, -0.089038f, 0.028011f, 0.104535f, 0.149391f, -0.159206f, 0.092846f, 0.030413f, -0.084578f, 0.067773f, 0.087603f, -0.236026f, 0.095406f, 0.016809f, 0.013397f, 0.047761f, -0.068166f, 0.068225f, 0.042132f, 0.041454f, 0.067520f, -0.157581f, -0.044650f, -0.034090f, 0.096980f, -0.072418f, 0.000074f, 0.082625f, 0.176482f, 0.104383f, -0.021328f, -0.117225f, -0.048792f, -0.182049f, -0.096358f, 0.092493f, 0.187359f, -0.185206f, 0.013478f, 0.043808f, 0.208796f, -0.204783f, -0.098027f, -0.063050f, 0.151842f, -0.039157f, 0.109159f, 0.101411f, 0.043161f, -0.032350f, -0.034798f, -0.189272f, -0.002591f, -0.117699f, -0.011986f, 0.190290f, -0.106303f, -0.062925f, 0.053817f, 0.107369f, 0.183534f, -0.092911f, -0.068501f, 0.012432f, 0.229163f, -0.041686f, 0.042420f, -0.073883f, 0.123153f, -0.117451f, 0.065202f, -0.226825f, -0.103692f, -0.106214f, -0.054350f, -0.063210f, 0.157302f, 0.061250f, 0.040266f, -0.053640f, 0.150050f, -0.015277f, -0.006266f, -0.157738f, -0.052642f, 0.123882f, 0.113340f, -0.005611f, -0.155674f, 0.114709f, 0.203206f, 0.085027f, -0.101577f, -0.028909f, 0.155927f, 0.138053f, -0.079521f, -0.080359f, 0.077207f, 0.117445f, -0.041217f, -0.150582f, 0.033304f, -0.148103f, -0.018028f, 0.086181f, -0.146045f, -0.172138f, 0.115358f, 0.046804f, 0.180357f, 0.058181f, 0.085565f, -0.087348f, -0.110823f, -0.046921f, 0.000848f, 0.090464f, 0.091221f, -0.118735f, 0.082064f, 0.036746f, 0.010991f, -0.108701f, 0.073926f, -0.076952f, 0.080597f, 0.072910f, 0.159781f, 0.057293f, -0.178889f, 0.108042f, 0.042071f, -0.019455f, -0.090867f, -0.078829f, -0.146710f, 0.083348f, -0.035025f, -0.109454f, 0.025592f, 0.004115f, 0.063515f, -0.057130f, -0.128723f, -0.070057f, 0.063380f, 0.049238f, -0.118884f, 0.050921f, 0.143493f, -0.197135f, -0.138704f, 0.079004f, 0.061711f, -0.047817f, 0.135282f, 0.041667f, 0.003768f, 0.009947f, 0.050116f, -0.117722f, -0.146045f, -0.128893f, -0.163655f, 0.181097f, -0.087432f, 0.073373f, 0.065973f, 0.053938f, 0.226745f, -0.091377f, -0.015643f, 0.107677f, 0.025891f, 0.040058f, -0.125929f, -0.030158f, -0.059550f, -0.157637f, -0.071229f, 0.099733f, -0.058307f, -0.090819f, -0.120156f, -0.123714f, -0.101105f, 0.114444f, 0.102488f, -0.028148f, -0.113358f, 0.076033f, -0.071614f, 0.159664f, -0.041374f, 0.120579f, -0.045522f, -0.005214f, 0.069255f, 0.072020f, 0.160681f, 0.098445f, -0.043600f, -0.159266f, 0.045902f, 0.091957f, -0.156754f, 0.117369f, -0.115208f, -0.065374f, 0.166764f, -0.142950f, 0.028889f, -0.070143f, -0.020506f, 0.029789f, 0.019739f, -0.180603f, 0.094415f, 0.051720f, -0.211333f, -0.102875f, -0.027557f, -0.041675f, -0.133845f, -0.113048f, -0.196804f, -0.161055f, 0.095779f, -0.103276f, 0.006778f, -0.118779f, -0.037524f, 0.030889f, 0.036909f, -0.001349f, 0.112810f, -0.035960f, 0.128739f, 0.103602f, 0.084658f, -0.061832f, 0.035008f, -0.040146f, 0.025921f, -0.051922f, -0.056296f, 0.097840f, -0.126775f, 0.097667f, -0.090057f, -0.137089f, 0.167271f, 0.181759f, -0.173391f, -0.089755f, -0.078379f, 0.057588f, 0.194525f, -0.083009f, 0.049511f, -0.155617f, -0.056276f, 0.108819f, -0.092933f, -0.122051f, 0.051691f, 0.133926f, -0.096373f, 0.105722f, -0.003971f, -0.186678f, -0.043341f, 0.137296f, -0.047434f, 0.071434f, -0.145472f, -0.059027f, -0.004086f, 0.024845f, 0.047682f, -0.130908f, 0.024078f, -0.115106f, -0.049083f, 0.023625f, -0.146051f, -0.038395f, -0.171609f, 0.141483f, -0.118943f, 0.124318f, -0.188953f, 0.022523f, 0.022888f, 0.127876f, 0.073239f, 0.102593f, -0.034378f, -0.109640f, -0.048210f, 0.089015f, 0.021915f, -0.169727f, -0.108414f, -0.129941f, -0.096708f, -0.011795f, 0.054415f, -0.164800f, -0.109950f, -0.103555f, 0.063531f, -0.035359f, -0.070984f, 0.036886f, 0.042082f, -0.018983f, -0.214349f, 0.073369f, 0.020018f, -0.009652f, -0.091248f, 0.020551f, -0.014695f, -0.106537f, 0.152084f, -0.041406f, 0.159031f, -0.183976f, -0.028694f, -0.020906f, -0.132232f, 0.225914f, 0.079023f, -0.057140f, -0.040794f, 0.072658f, -0.030540f, -0.007979f, -0.056692f, -0.011832f, -0.023690f, -0.026558f, -0.208678f, -0.087757f, 0.122290f, 0.018936f, -0.150721f, -0.048747f, -0.046637f, -0.103671f, -0.008569f, -0.058451f, 0.049511f, -0.099583f, 0.030375f, 0.083412f, -0.170778f, -0.116501f, 0.168260f, -0.068214f, 0.046863f, -0.097732f, -0.039938f, -0.091923f, 0.124973f, 0.068999f, -0.089045f, -0.087375f, 0.196044f, -0.067795f, 0.127515f, 0.111594f, 0.017471f, -0.069887f, -0.031555f, -0.062471f, -0.105080f, 0.078902f, 0.137512f, 0.067872f, -0.021332f, -0.113894f, 0.022512f, 0.075371f, 0.103485f, -0.085029f, 0.149495f, 0.127269f, 0.072202f, -0.080194f, 0.127116f, 0.154614f, -0.105561f, 0.072515f, -0.030372f, 0.082913f, -0.062373f, 0.003795f, -0.108359f, 0.222839f, -0.061252f, 0.080593f, -0.064321f, 0.076087f, 0.069518f, -0.092155f, 0.056012f, -0.008559f, 0.186908f, 0.024026f, -0.129399f, -0.116350f, 0.139993f, 0.131240f, -0.116003f, 0.127711f, 0.135423f, 0.041150f, -0.107049f, -0.020810f, 0.011831f, 0.002465f, -0.060672f, 0.020861f, 0.054205f, -0.057425f, -0.159139f, 0.043728f, 0.019880f, -0.073652f, -0.092587f, -0.142335f, -0.109486f, 0.128986f, -0.064682f, -0.030574f, -0.055221f, -0.042828f, -0.157241f, -0.117485f, 0.024716f, -0.095779f, -0.036835f, -0.161282f, 0.034267f, -0.135736f, -0.221430f, 0.069164f, -0.008875f, 0.024767f, -0.025451f, 0.067220f, -0.098064f, -0.010285f, -0.110204f, 0.126561f, -0.088763f, 0.040530f, 0.062044f, 0.081283f, 0.016169f, 0.061107f, -0.092466f, -0.163394f, -0.110666f, 0.124226f, -0.118615f, 0.082535f, 0.033028f, 0.065675f, 0.013833f, 0.119058f, -0.005162f, -0.110816f, 0.035234f, -0.135816f, 0.017716f, -0.143473f, -0.012588f, 0.186051f, -0.121814f, 0.051257f, -0.003538f, 0.017758f, 0.044425f, 0.016299f, 0.164083f, -0.005505f, -0.103666f, -0.065373f, -0.082504f, -0.125572f, 0.077585f, 0.081256f, 0.035284f, 0.110330f, -0.075985f, 0.052053f, 0.051865f, 0.157187f, -0.073386f, -0.031811f, -0.169625f, -0.154020f, -0.028957f, -0.041786f, -0.199543f, 0.085557f, 0.118559f, 0.030420f, -0.085365f, -0.087896f, 0.016469f, -0.171101f, -0.097692f, 0.099392f, 0.113376f, -0.125888f, -0.181902f, 0.013944f, -0.010091f, 0.030409f, -0.162229f, 0.028932f, -0.121485f, -0.007217f, -0.167515f, 0.033518f, -0.061788f, 0.102741f, 0.075354f, 0.029640f, -0.120794f, 0.110441f, 0.167403f, 0.141455f, -0.066585f, 0.111582f, 0.039327f, -0.018226f, -0.084633f, 0.025484f, 0.058348f, 0.112967f, -0.043757f, -0.016178f, 0.069765f, 0.049671f, 0.000284f, 0.147195f, 0.154283f, 0.072205f, 0.121224f, -0.017082f, 0.112115f, 0.039271f, -0.069140f, 0.022438f, -0.086192f, 0.136184f, 0.008602f, -0.119097f, 0.013357f, -0.002099f, 0.001703f, -0.062866f, -0.075999f, -0.169006f, -0.007262f, -0.036497f, 0.133773f, 0.165791f, -0.141500f, 0.085372f, 0.031092f, 0.129594f, -0.081708f, -0.003989f, 0.080578f, -0.093469f, -0.037321f, -0.187705f, 0.068232f, 0.185051f, 0.085344f, -0.098821f, 0.105154f, -0.114789f, -0.108222f, 0.023419f, 0.062614f, -0.060366f, -0.102143f, -0.119079f, 0.008457f, 0.099349f, -0.078128f, -0.071382f, -0.026071f, 0.119678f, 0.053413f, -0.017335f, 0.098646f, 0.067284f, 0.054720f, -0.109800f, -0.065450f, -0.171611f, -0.148641f, 0.003232f, -0.113120f, 0.135321f, -0.001237f, 0.025729f, 0.061512f, 0.158946f, -0.135212f, 0.056869f, -0.148602f, 0.209662f, 0.015701f, 0.036707f, 0.050513f, 0.072360f, -0.152409f, -0.235732f, -0.118218f, 0.194531f, -0.042572f, -0.041524f, 0.215788f, -0.000548f, 0.051146f, -0.344608f, -0.079103f, -0.071480f, 0.033693f, 0.068595f, -0.044242f, -0.154368f, 0.039185f, 0.076668f, 0.237862f, -0.047351f, 0.128609f, 0.117797f, 0.049667f, -0.271526f, -0.112395f, 0.023077f, -0.118227f, 0.214241f, 0.104659f, 0.191468f, -0.037419f, -0.021959f, 0.022687f, -0.231516f, 0.308474f, 0.129610f, 0.076706f, -0.009252f, -0.266907f, -0.156045f, 0.059949f, 0.005272f, 0.106232f, 0.141730f, 0.016150f, 0.046680f, -0.074609f, -0.061881f, -0.023578f, -0.123190f, -0.001970f, -0.111777f, -0.119009f, 0.084137f, -0.191366f, 0.102037f, -0.099404f, 0.040701f, 0.140253f, -0.001197f, -0.156822f, -0.221679f, 0.078539f, -0.099992f, -0.094753f, -0.127599f, -0.110918f, 0.024572f, 0.029053f, -0.077643f, -0.181499f, 0.202644f, 0.037475f, -0.086740f, -0.213205f, 0.149125f, -0.035216f, 0.254709f, 0.154513f, 0.054689f, -0.034739f, 0.079593f, -0.006867f, 0.278301f, -0.117180f, 0.131912f, 0.066072f, -0.179164f, -0.216739f, -0.040230f, -0.044111f, -0.184908f, 0.093910f, 0.136254f, -0.061008f, -0.339473f, 0.015263f, -0.023989f, 0.103001f, -0.079108f, -0.015128f, -0.095561f, 0.126707f, 0.083333f, 0.133440f, 0.086373f, 0.160141f, -0.253257f, -0.055922f, -0.026091f, 0.068415f, 0.037943f, 0.030929f, 0.201598f, -0.099481f, -0.295040f, -0.140823f, 0.126707f, 0.227290f, -0.178578f, -0.041391f, -0.050008f, 0.102421f, 0.011490f, 0.009396f, -0.102867f, 0.110436f, 0.086826f, 0.140528f, 0.072439f, 0.031783f, -0.052308f, -0.023826f, 0.130894f, 0.116069f, 0.073765f, -0.107605f, 0.048747f, 0.165556f, -0.156303f, 0.109310f, -0.001753f, -0.023168f, -0.136043f, -0.010258f, 0.031058f, 0.124734f, -0.096153f, -0.157641f, 0.075673f, 0.066604f, -0.002098f, 0.118496f, 0.094214f, 0.068551f, -0.064718f, -0.085691f, -0.102304f, 0.081338f, 0.061536f, 0.049439f, 0.033540f, -0.203994f, -0.016788f, 0.189497f, 0.001165f, 0.207305f, 0.040319f, -0.029213f, -0.077322f, 0.068475f, 0.063232f, -0.022308f, -0.015909f, -0.174270f, -0.014389f, -0.171765f, 0.015736f, -0.038263f, -0.121322f, 0.034122f, 0.192697f, 0.044473f, -0.033936f, -0.050434f, 0.017588f, 0.209367f, 0.037804f, -0.119063f, 0.120503f, -0.000348f, 0.029876f, -0.143951f, 0.069062f, 0.006766f, 0.060596f, -0.066434f, -0.078973f, 0.021549f, 0.066797f, -0.065154f, -0.021541f, -0.086494f, 0.087337f, -0.160007f, -0.087505f, 0.097125f, -0.065575f, -0.010676f, -0.066452f, 0.020982f, -0.110224f, -0.102874f, 0.013277f, -0.050335f, 0.099790f, 0.014406f, -0.020308f, 0.078775f, 0.006985f, -0.100420f, 0.089972f, -0.015495f, 0.074133f, -0.110740f, -0.198959f, -0.060370f, -0.027182f, -0.084921f, 0.130966f, -0.116779f, 0.059127f, -0.079596f, 0.034859f, 0.125967f, 0.087167f, 0.014286f, -0.108876f, -0.028955f, -0.013929f, -0.074158f, 0.033430f, 0.080179f, 0.092252f, 0.105597f, -0.093962f, 0.135266f, -0.120244f, -0.035410f, 0.139813f, -0.025681f, 0.102269f, 0.056505f, 0.098919f, -0.146269f, -0.060753f, -0.130144f, 0.069840f, 0.088368f, -0.101816f, 0.029493f, -0.086097f, 0.127524f, 0.119235f, 0.206840f, -0.165651f, -0.147721f, 0.047513f, 0.072600f, 0.104912f, -0.190505f, 0.118495f, -0.044992f, -0.118442f, 0.051817f, -0.051378f, 0.056291f, -0.119567f, 0.121321f, -0.137621f, -0.026819f, 0.068967f, 0.068217f, 0.040778f, 0.203996f, -0.165970f, -0.003683f, -0.171009f, 0.095670f, -0.097442f, -0.169684f, -0.093909f, -0.057101f, -0.134963f, -0.155657f, 0.060473f, -0.111216f, -0.028578f, -0.128584f, -0.120371f, -0.104673f, 0.007186f, -0.154741f, -0.032471f, -0.094369f, 0.032417f, 0.202835f, -0.143610f, -0.104150f, 0.117627f, 0.096763f, -0.123558f, 0.029348f, 0.052632f, -0.127954f, -0.122463f, 0.067146f, 0.065325f, -0.087188f, 0.011889f, -0.038999f, -0.003690f, -0.203893f, 0.176376f, -0.116715f, -0.122626f, 0.239145f, 0.048366f, -0.084669f, 0.008843f, 0.058184f, 0.059242f, 0.089218f, -0.013006f, 0.115382f, -0.092720f, -0.160615f, -0.094722f, -0.120279f, 0.152296f, -0.098289f, -0.066195f, 0.093071f, 0.039906f, -0.065610f, 0.071303f, -0.110145f, 0.030240f, 0.058546f, -0.111543f, -0.158216f, -0.086940f, 0.125239f, 0.090664f, -0.105117f, -0.054692f, -0.029025f, -0.079235f, 0.052036f, 0.011447f, 0.079303f, -0.001565f, -0.054172f, 0.156201f, 0.207031f, -0.028623f, -0.041475f, 0.061290f, 0.096614f, 0.010056f, 0.000482f, 0.068913f, 0.110895f, -0.098021f, 0.012511f, 0.017744f, -0.104553f, 0.005911f, -0.116046f, 0.120620f, 0.020777f, 0.048730f, -0.118994f, 0.044330f, 0.006989f, -0.026199f, -0.018605f, 0.043409f, -0.104874f, 0.019522f, 0.023979f, -0.092990f, 0.041076f, 0.099741f, 0.104186f, -0.012966f, 0.042076f, -0.021883f, 0.023629f, 0.072731f, 0.131159f, -0.001356f, 0.058638f, -0.075913f, -0.125919f, -0.076809f, 0.162850f, -0.064061f, -0.080762f, 0.120603f, 0.013735f, 0.098061f, -0.017831f, 0.089321f, -0.070402f, -0.057874f, -0.050515f, 0.101105f, -0.017160f, 0.108230f, 0.026032f, 0.153826f, -0.073381f, -0.083433f, 0.097744f, 0.110516f, 0.101755f, -0.156139f, -0.073322f, 0.089786f, 0.000383f, -0.026001f, 0.181451f, -0.090080f, -0.104625f, 0.100220f, -0.071239f, -0.121377f, 0.028738f, -0.175899f, -0.105419f, 0.017047f, 0.085967f, 0.014346f, -0.080196f, 0.070307f, -0.073873f, -0.044087f, -0.175592f, 0.059145f, -0.146089f, -0.027531f, 0.136568f, -0.097250f, 0.003295f, 0.214349f, 0.037228f, 0.090602f, -0.089591f, 0.031112f, 0.046967f, -0.127936f, 0.045869f, -0.033305f, 0.197906f, -0.093191f, -0.072944f, 0.066374f, 0.062599f, -0.129933f, -0.001243f, 0.117327f, 0.039458f, 0.129108f, -0.020129f, -0.052899f, 0.108850f, 0.117799f, -0.023303f, 0.111417f, 0.054779f, -0.130533f, -0.156559f, -0.018701f, 0.042215f, 0.118896f, 0.127974f, 0.103395f, 0.077659f, -0.126046f, -0.152086f, -0.119418f, 0.130595f, 0.125910f, -0.065452f, 0.115430f, 0.059478f, 0.047064f, -0.085650f, -0.112057f, -0.062015f, 0.060190f, -0.006185f, 0.062554f, -0.126846f, 0.034251f, -0.056312f, -0.091982f, 0.118221f, 0.009774f, 0.106554f, -0.018025f, 0.014020f, 0.095511f, 0.038463f, 0.122202f, -0.033846f, 0.162367f, -0.173614f, 0.076103f, 0.101499f, 0.025142f, 0.062485f, 0.023534f, 0.174201f, -0.009203f, 0.061391f, -0.108258f, -0.007343f, 0.036971f, 0.072056f, 0.091216f, -0.041333f, 0.164415f, 0.037704f, -0.069372f, 0.020763f, -0.056852f, -0.109988f, -0.115655f, -0.136667f, -0.126824f, -0.118443f, 0.120152f, 0.129989f, 0.045550f, 0.176374f, 0.063870f, 0.052119f, -0.154404f, 0.091021f, -0.092032f, 0.037541f, 0.110737f, 0.021947f, 0.084918f, -0.093964f, -0.031729f, -0.116326f, 0.126047f, 0.114812f, 0.070240f, -0.096325f, -0.032241f, 0.030105f, 0.127728f, 0.002100f, 0.015026f, 0.132232f, -0.094157f, 0.070222f, 0.091785f, 0.071902f, -0.057707f, -0.150453f, 0.096683f, -0.008034f, -0.108287f, 0.150964f, 0.071901f, 0.010745f, -0.164429f, 0.006769f, 0.188406f, -0.077713f, 0.128497f, 0.207281f, 0.025931f, 0.112193f, 0.063123f, -0.086224f, 0.086059f, -0.111959f, -0.075091f, 0.025773f, -0.084718f, -0.002132f, -0.045750f, 0.003218f, -0.011735f, -0.011692f, -0.049156f, 0.092998f, -0.088029f, -0.069617f, 0.025497f, -0.019875f, 0.113928f, 0.056189f, -0.016861f, -0.002722f, 0.000219f, 0.015654f, 0.134456f, 0.209950f, 0.109511f, -0.101106f, -0.065553f, 0.060129f, 0.053306f, 0.039152f, 0.132605f, -0.138306f, 0.151737f, -0.097528f, 0.030114f, 0.056794f, 0.147464f, -0.178251f, 0.121956f, 0.087622f, 0.105222f, 0.105991f, -0.104126f, 0.202489f, 0.067022f, -0.124875f, 0.086169f, -0.130609f, -0.124989f, 0.101936f, 0.029151f, -0.042714f, 0.017090f, -0.051154f, -0.132505f, -0.107094f, 0.222672f, 0.087854f, -0.003784f, 0.025299f, 0.072823f, 0.043873f, 0.055211f, 0.071049f, 0.212526f, -0.071775f, 0.004046f, 0.075541f };
static const float motion_direct_model_layer_1_biases[10] = { 0.125492f, -0.033811f, 0.020000f, -0.105649f, 0.122693f, 0.215476f, 0.002216f, 0.005493f, 0.054109f, 0.012113f };
static const float motion_direct_model_layer_1_weights[200] = { -0.193296f, 0.201566f, 0.099584f, 0.393725f, 0.102651f, -0.104217f, -0.295945f, 0.150746f, -0.321738f, 0.271927f, -0.086251f, 0.197811f, -0.118632f, -0.141112f, -0.086045f, -0.074273f, 0.208728f, -0.190887f, -0.127019f, -0.318004f, -0.038782f, 0.172288f, -0.199417f, 0.286812f, 0.285471f, -0.031378f, 0.160641f, -0.011179f, -0.257575f, 0.298459f, 0.368243f, 0.054198f, -0.216325f, -0.020463f, -0.299588f, -0.114886f, -0.262834f, -0.076166f, -0.286855f, 0.428865f, 0.335656f, -0.171692f, 0.015688f, 0.129635f, 0.006263f, 0.179640f, -0.195139f, 0.148170f, 0.452917f, -0.079117f, 0.269667f, 0.015352f, -0.137027f, -0.219929f, 0.201064f, -0.073416f, -0.097848f, -0.080037f, 0.417769f, -0.176210f, -0.139652f, 0.363525f, 0.327259f, 0.278669f, -0.195406f, 0.006456f, 0.200361f, -0.276462f, 0.272609f, -0.020028f, -0.130835f, 0.010984f, 0.217459f, 0.014881f, 0.270344f, 0.183920f, -0.215569f, 0.333026f, 0.434450f, -0.342282f, -0.160664f, 0.475814f, -0.190556f, 0.013144f, 0.269569f, -0.148005f, -0.017847f, 0.090111f, 0.054811f, -0.054762f, 0.242842f, 0.196438f, 0.003069f, 0.404541f, 0.039288f, -0.145158f, 0.159998f, -0.323517f, 0.141676f, 0.042324f, -0.178383f, 0.067073f, -0.019730f, -0.249811f, 0.420746f, -0.195286f, 0.372507f, 0.069808f, 0.155775f, 0.237586f, -0.107994f, 0.139426f, 0.339935f, -0.017807f, 0.118019f, 0.027337f, 0.347521f, -0.210862f, -0.221733f, -0.195614f, -0.342240f, 0.237103f, -0.250311f, 0.058730f, -0.011208f, -0.342936f, -0.066506f, 0.019202f, -0.048665f, 0.047948f, 0.363922f, -0.003183f, 0.113659f, -0.301591f, 0.007328f, 0.012486f, -0.301736f, -0.067971f, 0.106377f, 0.251525f, -0.259034f, 0.014698f, 0.325568f, -0.139536f, -0.191789f, 0.205079f, 0.087140f, 0.010162f, 0.393275f, 0.243218f, 0.024186f, 0.388287f, -0.215065f, -0.198976f, 0.279687f, -0.011903f, 0.283435f, -0.137102f, -0.258791f, 0.038576f, -0.036007f, 0.136563f, -0.240606f, 0.327038f, -0.110197f, -0.159046f, -0.266252f, 0.315450f, 0.406642f, -0.171171f, -0.114220f, 0.179099f, 0.095134f, 0.248358f, -0.025083f, -0.184149f, -0.198288f, -0.079140f, -0.051712f, 0.195198f, 0.062760f, -0.162127f, 0.274947f, 0.086481f, -0.333441f, 0.043691f, -0.267246f, 0.324667f, -0.102559f, -0.144032f, 0.313781f, 0.003782f, 0.127923f, -0.036052f, -0.045640f, 0.561013f, -0.073195f, 0.118787f, -0.359953f, -0.144508f };
static const float motion_direct_model_layer_2_biases[6] = { -0.024032f, -0.247307f, 0.055505f, 0.081763f, -0.004338f, 0.125142f };
static const float motion_direct_model_layer_2_weights[60] = { 0.295793f, 0.199569f, -0.280815f, 0.383486f, -0.600628f, 0.495189f, -0.477937f, 0.431954f, 0.460563f, 0.274096f, 0.613475f, -0.274977f, 0.415879f, 0.756695f, 0.241548f, -0.593318f, -0.132146f, 0.512030f, -0.414692f, 0.579359f, 0.199582f, -0.022524f, 0.275969f, -0.126990f, 0.546681f, -0.390204f, 0.612109f, 0.454646f, 0.143210f, -0.073177f, 0.298970f, -0.220707f, 0.089360f, -0.190348f, -0.299122f, 0.748297f, -0.484233f, 0.222022f, 0.358387f, -0.012760f, -0.635522f, 0.251458f, -0.173102f, -0.460306f, -0.084917f, -0.170896f, 0.256564f, -0.002845f, 0.505048f, -0.618959f, -0.578890f, 0.087677f, 0.457233f, 0.084450f, -0.115411f, -0.041611f, -0.351117f, 0.274943f, -0.632467f, -0.674115f };
static float motion_direct_model_buf1[102];
static float motion_direct_model_buf2[102];
static const EmlNetLayer motion_direct_model_layers[3] = { 
{ 20, 102, motion_direct_model_layer_0_weights, motion_direct_model_layer_0_biases, EmlNetActivationRelu }, 
{ 10, 20, motion_direct_model_layer_1_weights, motion_direct_model_layer_1_biases, EmlNetActivationRelu }, 
{ 6, 10, motion_direct_model_layer_2_weights, motion_direct_model_layer_2_biases, EmlNetActivationSoftmax } };
static EmlNet motion_direct_model = { 3, motion_direct_model_layers, motion_direct_model_buf1, motion_direct_model_buf2, 102 };

    int32_t
    motion_direct_model_predict(const float *features, int32_t n_features)
    {
        return eml_net_predict(&motion_direct_model, features, n_features);
    }
    

    int32_t
    motion_direct_model_regress(const float *features, int32_t n_features, float *out, int32_t out_length)
    {
        return eml_net_regress(&motion_direct_model, features, n_features, out, out_length);
    }
    

    float
    motion_direct_model_regress1(const float *features, int32_t n_features)
    {
        return eml_net_regress1(&motion_direct_model, features, n_features);
    }
    