
#include <eml_net.h>
static const float anomaly_model_layer_0_biases[20] = { 0.072046f, 0.109226f, 0.073792f, -0.012022f, 0.077692f, 0.061697f, 0.039879f, -0.045009f, -0.050905f, -0.062462f, -0.100400f, -0.032629f, -0.046182f, -0.031010f, 0.062194f, 0.001227f, 0.002396f, 0.020669f, -0.035253f, 0.082411f };
static const float anomaly_model_layer_0_weights[2040] = { -0.092744f, -0.053202f, -0.026712f, -0.080325f, 0.083242f, -0.257259f, -0.109918f, 0.026346f, 0.113256f, 0.002045f, 0.197537f, 0.131909f, 0.113271f, 0.041199f, 0.015516f, -0.039199f, -0.159709f, -0.185034f, -0.099028f, -0.046741f, -0.003786f, -0.073835f, 0.132819f, 0.135372f, -0.145492f, -0.105541f, -0.019794f, 0.026741f, 0.027130f, -0.037366f, 0.252361f, 0.258834f, 0.007302f, 0.095384f, 0.074667f, -0.020130f, -0.048439f, -0.115184f, -0.093927f, -0.058238f, -0.053494f, -0.184011f, -0.113257f, -0.143041f, -0.028447f, -0.121656f, 0.112608f, 0.103273f, -0.083357f, 0.058978f, 0.087991f, 0.073780f, -0.083786f, 0.077008f, -0.000790f, 0.104320f, -0.020426f, 0.000730f, -0.082649f, 0.025386f, -0.062785f, 0.085382f, -0.047593f, 0.079164f, -0.053366f, 0.084788f, -0.187857f, -0.030204f, -0.211774f, 0.099168f, -0.050922f, -0.108957f, -0.118000f, 0.190127f, 0.190206f, -0.072714f, -0.046299f, 0.159287f, -0.102774f, 0.113492f, -0.098975f, -0.106700f, 0.199404f, -0.064290f, -0.210659f, 0.080825f, 0.120601f, 0.019408f, -0.052230f, 0.107604f, 0.131034f, -0.074255f, -0.004332f, 0.081507f, -0.070704f, -0.107208f, -0.054814f, -0.048274f, 0.159923f, 0.122326f, -0.017276f, 0.059117f, 0.155079f, -0.094929f, -0.065546f, 0.015707f, 0.093928f, -0.022749f, -0.162542f, -0.088200f, -0.143718f, -0.077452f, 0.030781f, -0.043169f, 0.059844f, -0.058923f, -0.023945f, 0.043367f, 0.025224f, 0.133985f, 0.097693f, -0.083194f, 0.154647f, 0.113087f, -0.099059f, -0.159286f, -0.091489f, 0.069638f, -0.149465f, -0.003365f, -0.088759f, 0.102500f, 0.110977f, 0.159948f, -0.000912f, -0.062551f, -0.152765f, 0.156402f, 0.152174f, 0.110559f, -0.096039f, -0.074916f, -0.122686f, -0.071612f, -0.005520f, 0.075594f, 0.062110f, -0.135566f, 0.142003f, 0.050858f, 0.147215f, -0.007842f, 0.051240f, 0.064451f, -0.042068f, -0.124176f, -0.023248f, 0.107787f, 0.144893f, -0.119126f, 0.106234f, 0.126584f, -0.110535f, -0.045656f, 0.110102f, 0.091901f, 0.177354f, -0.104524f, -0.001153f, 0.030587f, -0.149345f, -0.010782f, -0.053185f, 0.074650f, -0.155058f, -0.127222f, 0.009795f, -0.105503f, 0.066566f, -0.106155f, 0.098561f, 0.117905f, 0.073037f, 0.078710f, 0.017426f, -0.074273f, -0.140817f, 0.138799f, 0.131656f, -0.090411f, -0.138320f, 0.100849f, -0.081722f, 0.121682f, 0.012740f, -0.122123f, -0.059612f, 0.089014f, 0.086064f, -0.121614f, -0.065422f, -0.097789f, -0.018783f, 0.084485f, -0.105429f, -0.100752f, -0.008218f, -0.078637f, 0.133006f, -0.015808f, 0.170390f, 0.135921f, -0.022192f, 0.127277f, 0.079290f, -0.007105f, 0.032246f, 0.113663f, 0.050399f, -0.107446f, -0.028349f, 0.131942f, 0.065721f, -0.127102f, 0.094332f, 0.112931f, 0.108097f, 0.136923f, 0.091134f, -0.107530f, 0.165983f, 0.088171f, 0.039877f, 0.141282f, -0.158905f, -0.028354f, 0.037879f, -0.149945f, -0.096231f, 0.044045f, 0.009260f, 0.081378f, 0.031973f, 0.024406f, -0.060304f, -0.099315f, 0.099377f, -0.094005f, -0.016709f, 0.038088f, 0.070640f, -0.100049f, -0.040037f, 0.161798f, -0.029512f, -0.097103f, -0.086436f, -0.055584f, 0.021658f, -0.111141f, -0.105444f, -0.120135f, -0.136120f, 0.121967f, -0.048355f, 0.166210f, 0.115189f, -0.020643f, -0.067851f, 0.065651f, 0.130857f, -0.113039f, 0.096473f, 0.090204f, -0.028460f, -0.089580f, 0.143568f, -0.059425f, -0.182948f, 0.028752f, -0.007896f, 0.170391f, 0.145221f, 0.054471f, 0.056068f, 0.083989f, 0.052909f, 0.036854f, 0.167471f, -0.051638f, -0.023259f, -0.147773f, -0.053861f, 0.103996f, -0.124717f, 0.048960f, -0.097824f, 0.069979f, -0.139479f, -0.047819f, -0.158591f, 0.101031f, -0.003624f, 0.038310f, 0.104637f, 0.111177f, -0.006226f, 0.116292f, -0.033885f, -0.083407f, -0.032467f, 0.127564f, 0.080153f, -0.019048f, -0.090208f, 0.031177f, -0.100611f, -0.091822f, -0.008811f, -0.155539f, 0.066096f, -0.019823f, -0.059644f, -0.122224f, 0.063797f, -0.053927f, 0.095064f, -0.060894f, 0.005354f, -0.116452f, -0.009381f, 0.102880f, -0.072443f, -0.078454f, 0.077623f, -0.054852f, -0.049120f, -0.119782f, 0.011580f, 0.033721f, -0.155847f, 0.005734f, -0.000473f, 0.062532f, -0.069980f, -0.126933f, 0.060988f, -0.123684f, -0.033966f, -0.118568f, 0.045733f, 0.061208f, -0.015524f, -0.005669f, 0.013781f, -0.051238f, 0.139202f, -0.091726f, 0.102339f, 0.022401f, -0.092054f, 0.050476f, 0.075579f, 0.121302f, -0.077013f, 0.152981f, 0.068675f, 0.022679f, -0.055631f, -0.099722f, 0.120614f, -0.049690f, -0.035627f, -0.174437f, -0.053561f, -0.031187f, 0.027616f, 0.095287f, 0.179612f, -0.006084f, 0.033924f, 0.152559f, 0.113894f, -0.027151f, 0.004290f, 0.028878f, 0.038942f, -0.054913f, -0.094577f, -0.035124f, -0.117230f, 0.060851f, 0.087769f, 0.002270f, 0.059481f, -0.040026f, -0.055060f, 0.083764f, 0.001539f, -0.164829f, -0.134478f, -0.097454f, -0.036464f, 0.009239f, -0.120417f, -0.080662f, 0.004328f, 0.007758f, -0.029520f, -0.148717f, -0.163080f, 0.107540f, -0.130674f, -0.121061f, -0.125943f, 0.029308f, 0.128323f, -0.018453f, 0.028943f, 0.077009f, -0.107650f, 0.063171f, -0.003816f, 0.039290f, 0.068747f, -0.119748f, 0.103008f, -0.110675f, 0.104449f, -0.023639f, 0.027906f, 0.081047f, 0.113978f, -0.088545f, 0.021886f, 0.039826f, -0.044084f, -0.115590f, 0.145386f, 0.005047f, -0.086304f, 0.177517f, -0.116049f, -0.083497f, -0.075042f, 0.168650f, -0.172175f, 0.201573f, 0.109072f, -0.145137f, 0.091369f, -0.008728f, 0.097148f, -0.224163f, -0.010453f, -0.066549f, 0.016965f, 0.029807f, 0.024941f, 0.110150f, -0.122344f, -0.104920f, -0.034349f, 0.037707f, -0.036397f, 0.131205f, -0.158651f, -0.105798f, 0.045659f, -0.004527f, -0.106262f, -0.021737f, 0.143333f, 0.104891f, 0.101787f, 0.031752f, 0.009425f, 0.101106f, 0.090842f, -0.030714f, 0.087577f, -0.016994f, 0.082585f, 0.062639f, -0.038282f, 0.097142f, 0.093598f, 0.090942f, 0.099770f, 0.018826f, 0.106913f, 0.157707f, 0.043733f, 0.133044f, 0.021886f, -0.035222f, 0.005095f, -0.061678f, -0.050280f, -0.029674f, -0.131867f, 0.109737f, 0.108399f, 0.054055f, -0.069935f, 0.149538f, -0.043907f, 0.097241f, -0.088456f, -0.154753f, 0.105785f, 0.042477f, 0.072421f, -0.101173f, -0.078834f, 0.077527f, 0.127873f, 0.070482f, 0.079003f, -0.061457f, -0.080613f, -0.052289f, -0.103780f, 0.038295f, 0.024659f, -0.007445f, 0.060971f, -0.089994f, 0.082130f, 0.027303f, -0.049614f, 0.148523f, 0.007071f, -0.046281f, -0.053758f, 0.027726f, -0.065461f, 0.171769f, -0.092373f, 0.110810f, -0.132932f, -0.085556f, 0.088631f, -0.149944f, 0.091792f, -0.045000f, -0.029433f, -0.082215f, 0.130278f, -0.125544f, 0.107794f, -0.042055f, 0.006917f, 0.111048f, -0.007059f, -0.022770f, -0.064118f, 0.117910f, -0.114719f, -0.028018f, -0.080385f, 0.091873f, 0.050897f, 0.095409f, -0.111208f, 0.090518f, -0.130359f, -0.033502f, 0.011739f, 0.032760f, 0.094006f, 0.107088f, -0.064669f, 0.037433f, -0.090621f, 0.000309f, 0.129131f, -0.056880f, 0.040889f, 0.052802f, 0.014565f, -0.164675f, 0.040028f, -0.011536f, 0.010108f, -0.017634f, -0.061407f, -0.102952f, 0.066316f, -0.010705f, 0.100412f, 0.017027f, 0.189403f, 0.060407f, 0.054140f, -0.056433f, 0.093764f, -0.078809f, -0.151275f, 0.106340f, -0.024617f, -0.157473f, -0.154725f, -0.018191f, -0.041662f, 0.061100f, -0.115681f, 0.004562f, 0.185415f, 0.083726f, 0.069445f, 0.039622f, -0.062309f, -0.153664f, -0.089978f, 0.044439f, 0.086929f, -0.103093f, 0.146477f, 0.013911f, 0.064552f, -0.248822f, 0.082879f, 0.100187f, -0.004518f, -0.027796f, 0.060230f, 0.130128f, 0.096448f, 0.073802f, 0.153232f, 0.156027f, -0.033905f, 0.164748f, -0.007169f, -0.133866f, -0.023273f, 0.062700f, 0.095831f, 0.028009f, 0.005518f, 0.063962f, -0.185842f, 0.183443f, 0.130520f, 0.004614f, 0.213434f, 0.142193f, -0.131016f, -0.068280f, 0.165361f, -0.102595f, 0.105609f, -0.117211f, 0.135843f, 0.062259f, -0.182110f, -0.111767f, -0.218706f, -0.133466f, 0.147296f, 0.003569f, -0.088525f, -0.082074f, -0.067444f, -0.037533f, -0.065200f, 0.104208f, 0.130716f, 0.128212f, 0.066364f, -0.039849f, -0.041995f, 0.200664f, -0.049123f, -0.079238f, -0.015650f, -0.047413f, 0.048204f, -0.042771f, -0.039389f, -0.082389f, -0.035573f, 0.231296f, 0.108213f, 0.024372f, 0.252712f, 0.057139f, -0.014679f, 0.012500f, 0.134224f, 0.128502f, 0.201227f, -0.097047f, -0.127364f, 0.029910f, -0.160645f, 0.082184f, -0.061247f, -0.107083f, 0.165026f, -0.180886f, -0.115303f, 0.130714f, 0.064653f, -0.048433f, -0.080264f, 0.103555f, -0.024263f, 0.146698f, -0.003651f, 0.039954f, 0.012157f, 0.063906f, 0.014323f, 0.020781f, 0.059781f, 0.103318f, 0.056006f, 0.012478f, 0.001647f, 0.123500f, -0.020575f, 0.077445f, -0.050110f, 0.138569f, -0.126747f, 0.063625f, -0.039075f, -0.010980f, 0.135270f, -0.139317f, -0.095859f, -0.198387f, -0.084500f, 0.013314f, -0.016411f, 0.010422f, -0.130853f, -0.093218f, 0.065851f, -0.118943f, -0.008319f, -0.133968f, 0.130941f, -0.100309f, 0.031229f, -0.140339f, -0.182761f, -0.145214f, -0.104221f, -0.169448f, 0.016507f, 0.175948f, 0.195864f, 0.070901f, -0.108192f, 0.075581f, 0.057244f, 0.237244f, -0.084836f, 0.149156f, 0.162388f, -0.107111f, -0.015845f, -0.004054f, 0.231203f, -0.018179f, 0.069624f, -0.060565f, 0.002416f, 0.104667f, 0.105094f, -0.015010f, 0.206138f, -0.118639f, 0.089193f, 0.028387f, -0.168460f, -0.021972f, 0.043815f, 0.256447f, 0.113013f, -0.057514f, 0.169646f, -0.079211f, 0.003068f, -0.195140f, 0.060883f, 0.077464f, 0.021916f, 0.046919f, -0.101385f, 0.050883f, -0.077570f, -0.107751f, 0.122563f, 0.034703f, 0.117295f, -0.116212f, 0.111623f, -0.056855f, 0.156772f, 0.036621f, -0.132089f, 0.012601f, 0.130138f, 0.090580f, -0.165441f, -0.164327f, -0.057829f, -0.161697f, 0.035404f, 0.055527f, -0.112963f, -0.116863f, -0.067662f, 0.021965f, 0.127639f, -0.009278f, -0.004883f, -0.064563f, 0.028020f, -0.036537f, -0.008626f, 0.146398f, -0.120170f, 0.180950f, -0.028510f, -0.114085f, 0.015378f, -0.059006f, -0.081285f, -0.109827f, -0.045117f, -0.071921f, -0.045965f, 0.048271f, -0.148949f, 0.028032f, 0.002660f, -0.029636f, 0.142036f, -0.048885f, -0.136412f, -0.145154f, -0.013360f, -0.008067f, -0.027288f, -0.120710f, 0.131551f, 0.181854f, 0.090477f, -0.152185f, -0.142757f, -0.079022f, 0.093629f, 0.039925f, -0.032696f, -0.160572f, -0.137021f, 0.024555f, 0.165198f, 0.186757f, 0.000815f, 0.061206f, -0.106328f, 0.037129f, 0.124587f, 0.087922f, 0.166162f, 0.001664f, 0.033796f, 0.075144f, 0.130361f, 0.001321f, -0.042802f, -0.035368f, -0.008408f, -0.076006f, -0.071303f, -0.090566f, -0.087970f, 0.000534f, -0.052572f, -0.135485f, -0.043600f, 0.127484f, 0.116087f, -0.080258f, -0.075997f, 0.006019f, -0.047327f, 0.099268f, -0.069532f, 0.005450f, -0.030322f, -0.092242f, -0.014095f, 0.022856f, -0.112041f, 0.189043f, -0.014345f, 0.113771f, -0.058017f, 0.174098f, -0.001814f, -0.106525f, 0.149569f, -0.017504f, 0.161593f, -0.106998f, 0.193367f, -0.118012f, -0.069973f, -0.077648f, -0.103013f, -0.138929f, -0.031307f, -0.047594f, 0.063271f, 0.009030f, 0.065961f, -0.091013f, 0.102850f, 0.080898f, 0.116157f, -0.055317f, 0.007846f, 0.011301f, 0.052853f, 0.204748f, -0.015195f, 0.064616f, -0.151976f, -0.096392f, -0.034199f, -0.024737f, 0.097006f, -0.000175f, -0.044577f, 0.130892f, 0.059198f, -0.146187f, 0.113004f, 0.031832f, 0.159644f, 0.194795f, -0.050337f, 0.042897f, -0.030757f, -0.093070f, 0.041187f, 0.005595f, 0.027556f, 0.076143f, -0.053499f, -0.027091f, -0.010822f, -0.195052f, -0.040077f, -0.078458f, 0.095275f, 0.000533f, 0.089601f, -0.056065f, -0.008222f, 0.065212f, 0.181518f, -0.202255f, 0.081184f, 0.084295f, -0.101514f, 0.068935f, -0.121672f, -0.019495f, -0.002191f, 0.027329f, -0.007998f, 0.030330f, 0.112344f, 0.164990f, -0.189958f, -0.080455f, -0.066414f, 0.092518f, 0.151140f, 0.125922f, -0.145898f, -0.089937f, -0.088486f, 0.079204f, -0.109231f, -0.168267f, -0.044028f, 0.043854f, 0.033016f, -0.003327f, -0.103922f, 0.052209f, -0.048384f, 0.135835f, -0.080021f, 0.118911f, -0.044464f, -0.109065f, -0.118063f, -0.046849f, 0.040772f, -0.172422f, -0.024366f, 0.040147f, 0.073982f, -0.085362f, 0.103155f, -0.083704f, 0.043713f, 0.091885f, 0.004698f, -0.161592f, -0.104000f, -0.152434f, -0.082650f, -0.052941f, -0.087258f, 0.118810f, -0.084173f, -0.069477f, 0.116140f, -0.099724f, -0.073591f, -0.091666f, -0.180579f, 0.122234f, -0.051313f, 0.064346f, -0.071017f, 0.078199f, 0.070930f, -0.037539f, -0.167256f, 0.164960f, -0.084317f, -0.190875f, -0.075782f, 0.191617f, 0.094110f, -0.054420f, -0.184733f, -0.027470f, -0.108920f, 0.101468f, -0.101333f, 0.017740f, 0.087808f, -0.112440f, 0.116144f, 0.104939f, -0.057595f, 0.111089f, -0.118983f, 0.100901f, 0.068748f, 0.090860f, -0.038615f, 0.241943f, -0.008446f, 0.013112f, 0.056718f, -0.005590f, 0.020955f, -0.052794f, -0.021945f, -0.016450f, -0.062709f, -0.112280f, -0.072474f, 0.044479f, -0.196478f, -0.046197f, 0.117577f, -0.089554f, -0.123258f, 0.009728f, 0.039927f, -0.053248f, 0.068822f, 0.086636f, 0.129727f, -0.132182f, -0.120195f, -0.067871f, 0.058894f, -0.117522f, 0.058062f, -0.071585f, 0.129989f, -0.144468f, 0.072060f, -0.075245f, 0.036539f, 0.167502f, -0.009910f, 0.039096f, 0.076443f, 0.145916f, 0.056396f, -0.016107f, -0.105530f, -0.031412f, 0.147493f, 0.119661f, 0.014060f, 0.058782f, -0.136882f, -0.031219f, 0.070118f, -0.091827f, -0.046195f, -0.138044f, 0.088624f, 0.050654f, 0.001172f, 0.136990f, -0.005282f, -0.035402f, 0.158474f, -0.029517f, 0.076204f, 0.095737f, 0.139687f, -0.015928f, -0.070311f, -0.115064f, -0.189602f, -0.091409f, 0.094516f, -0.181098f, 0.056345f, -0.033850f, 0.002616f, -0.227662f, 0.110853f, 0.193292f, -0.075004f, -0.035407f, 0.008989f, 0.156354f, -0.008701f, -0.154608f, 0.013209f, -0.071135f, 0.131383f, 0.190490f, -0.121275f, -0.124768f, -0.160156f, 0.139287f, -0.155294f, -0.157559f, -0.151210f, -0.073394f, 0.076452f, 0.045413f, -0.086873f, 0.116567f, 0.087639f, -0.135004f, 0.076730f, 0.069557f, 0.131860f, -0.046901f, 0.047859f, -0.001849f, -0.122746f, -0.034713f, 0.167644f, -0.123492f, 0.050935f, -0.056248f, -0.086375f, 0.137272f, 0.121216f, -0.147227f, 0.067238f, -0.155617f, 0.019288f, 0.112394f, 0.074387f, -0.058404f, 0.019165f, 0.158201f, 0.020401f, -0.042258f, -0.110712f, -0.097569f, 0.000033f, 0.139650f, -0.041149f, 0.101628f, -0.007218f, 0.052884f, 0.014855f, 0.088047f, -0.045648f, 0.059881f, -0.082776f, 0.015781f, 0.134757f, -0.153256f, 0.151558f, -0.016744f, 0.037982f, 0.174845f, 0.117296f, -0.017806f, 0.020515f, 0.117439f, 0.061062f, 0.091616f, -0.025979f, -0.078630f, -0.120904f, -0.018842f, 0.152466f, 0.030557f, 0.044167f, 0.154875f, 0.091995f, -0.165593f, -0.030998f, 0.070711f, -0.025634f, 0.050275f, -0.129373f, 0.004392f, 0.154635f, -0.071455f, 0.116634f, 0.067813f, -0.135707f, 0.107809f, -0.142565f, -0.061646f, -0.067905f, 0.078200f, 0.101021f, -0.042076f, 0.125752f, -0.020184f, 0.074695f, 0.025407f, 0.076177f, 0.094975f, -0.160230f, -0.073286f, 0.049606f, 0.070824f, -0.081408f, 0.113761f, -0.091505f, -0.083745f, -0.167487f, -0.053215f, 0.045134f, -0.038362f, -0.024671f, -0.072125f, -0.011308f, 0.115465f, 0.120829f, 0.085499f, -0.125000f, -0.088311f, 0.026273f, -0.106784f, 0.127750f, 0.142475f, -0.017244f, -0.037128f, 0.011525f, 0.099515f, -0.050290f, -0.042959f, 0.037881f, 0.097861f, -0.074081f, 0.140825f, 0.142070f, -0.126521f, -0.147839f, -0.121992f, -0.099205f, -0.063119f, -0.105835f, -0.060932f, -0.146494f, -0.133428f, -0.047358f, 0.057061f, 0.079803f, -0.140992f, -0.054769f, 0.155814f, -0.111276f, -0.018825f, -0.168573f, 0.195462f, 0.191195f, -0.091389f, 0.206034f, 0.060930f, -0.077125f, 0.147940f, 0.006444f, -0.078230f, 0.016067f, 0.057001f, -0.042404f, -0.150244f, 0.143967f, -0.015889f, 0.083957f, 0.140521f, -0.163513f, -0.144361f, -0.066494f, 0.073067f, 0.109773f, -0.042779f, 0.178194f, -0.033933f, 0.008478f, 0.035486f, -0.065325f, -0.058678f, -0.100669f, -0.141845f, -0.044642f, -0.144058f, 0.038071f, 0.155812f, 0.008738f, -0.086305f, -0.186716f, 0.002641f, -0.111636f, -0.087059f, 0.012559f, -0.003976f, -0.077773f, 0.003216f, 0.049366f, 0.154644f, -0.068271f, 0.046820f, -0.014776f, -0.084150f, -0.144892f, 0.022630f, 0.050785f, -0.260924f, 0.156709f, -0.065237f, -0.019487f, -0.122685f, -0.089124f, -0.065449f, -0.085025f, -0.004182f, 0.273198f, 0.101558f, 0.235759f, 0.182847f, 0.228428f, 0.042675f, -0.144419f, 0.181593f, 0.138253f, -0.061445f, -0.093095f, -0.063766f, 0.212686f, -0.004639f, -0.088909f, -0.137881f, -0.085946f, 0.083230f, -0.157514f, -0.003512f, 0.079473f, 0.009933f, -0.056474f, 0.051102f, 0.171381f, -0.023345f, -0.061773f, 0.322897f, 0.039626f, 0.107203f, -0.082715f, 0.083879f, -0.043931f, 0.187137f, 0.011372f, 0.118801f, 0.309025f, 0.085719f, 0.161064f, -0.089638f, -0.051637f, -0.000869f, 0.090886f, 0.028284f, -0.265005f, 0.048167f, -0.010848f, -0.154979f, 0.049158f, -0.087524f, 0.109314f, -0.116268f, 0.114033f, -0.063999f, -0.160534f, -0.232640f, -0.099485f, 0.020437f, 0.056714f, -0.079357f, -0.083634f, -0.053377f, -0.081776f, 0.038672f, -0.065178f, 0.071076f, 0.091020f, 0.064837f, -0.084247f, 0.199305f, 0.109144f, -0.004883f, 0.165775f, -0.023673f, 0.055732f, -0.016183f, -0.144139f, 0.095215f, -0.131727f, -0.043067f, 0.145927f, 0.090270f, 0.154945f, 0.057441f, 0.046977f, -0.079167f, -0.083842f, -0.106149f, 0.155429f, -0.015704f, -0.023436f, 0.098194f, 0.152502f, -0.013937f, -0.135502f, 0.047530f, -0.288156f, 0.011705f, 0.080146f, 0.018290f, -0.077027f, 0.087772f, -0.067807f, 0.214604f, -0.053446f, 0.029151f, 0.031518f, 0.107360f, 0.275965f, 0.047527f, -0.050852f, 0.143651f, 0.162314f, 0.101680f, 0.023395f, -0.123931f, -0.137735f, 0.149587f, -0.000773f, -0.026842f, -0.062377f, 0.052294f, -0.153399f, -0.044047f, 0.067257f, -0.094836f, 0.144703f, 0.247948f, 0.036554f, 0.024000f, -0.197715f, -0.048368f, 0.033101f, -0.041552f, -0.001633f, -0.145118f, -0.145076f, -0.126590f, 0.071345f, -0.136930f, -0.167415f, -0.102030f, -0.076784f, -0.019908f, 0.126257f, -0.094727f, -0.074099f, -0.036640f, 0.169652f, -0.113939f, -0.087778f, -0.092769f, 0.102141f, 0.166013f, 0.123635f, -0.055206f, 0.038754f, 0.064352f, 0.121074f, -0.156709f, -0.057082f, 0.014726f, 0.141491f, 0.090446f, -0.156259f, 0.060707f, 0.088859f, 0.085373f, 0.199080f, -0.080984f, 0.073492f, -0.137512f, 0.110204f, 0.172352f, -0.105286f, -0.033311f, -0.077426f, -0.069898f, 0.042804f, -0.137647f, 0.090542f, 0.144246f, -0.101127f, -0.027131f, 0.087049f, -0.094389f, 0.111741f, 0.075342f, -0.134775f, -0.062448f, -0.130024f, -0.086836f, -0.060976f, -0.007906f, 0.085002f, -0.158919f, 0.084020f, 0.189572f, -0.058091f, -0.175311f, -0.067543f, 0.097608f, 0.188555f, 0.130237f, 0.072509f, -0.126346f, -0.112300f, -0.002931f, 0.108225f, 0.028666f, -0.074280f, 0.077810f, -0.074283f, 0.112799f, 0.082031f, 0.169492f, 0.072518f, 0.106910f, 0.007584f, -0.027510f, 0.036980f, -0.045459f, 0.052298f, 0.135537f, 0.057802f, 0.002963f, 0.122673f, 0.031492f, 0.045909f, -0.133757f, 0.069929f, -0.115394f, -0.039862f, 0.142429f, 0.081491f, 0.019910f, 0.081556f, -0.073684f, 0.108018f, -0.106846f, 0.113913f, 0.061444f, 0.026346f, 0.159716f, 0.006349f, -0.076418f, -0.109495f, -0.178924f, -0.105298f, -0.135731f, -0.019062f, -0.097489f, 0.121626f, -0.028388f, -0.089329f, -0.111009f, -0.050772f, 0.019416f, 0.007819f, -0.106277f, -0.118058f, 0.089284f, -0.110321f, -0.149190f, 0.069029f, -0.040662f, -0.033491f, 0.120574f, -0.115249f, -0.111329f, 0.069707f, 0.104396f, 0.102590f, 0.119015f, 0.054343f, 0.024308f, -0.095841f, -0.054320f, 0.161766f, -0.146831f, 0.147363f, 0.080677f, 0.022121f, -0.088977f, -0.116944f, -0.009296f, 0.102138f, -0.025092f, 0.092487f, -0.026520f, -0.144049f, 0.015673f, -0.108017f, -0.005493f, -0.042786f, -0.058820f, -0.058060f, -0.061585f, -0.024989f, 0.039613f, -0.026633f, 0.140532f, 0.145611f, 0.149132f, 0.119030f, 0.016537f, -0.091894f, -0.098227f, 0.126493f, -0.134838f, -0.065145f, 0.057152f, -0.062803f, 0.037508f, -0.044153f, 0.054576f, 0.062210f, -0.046279f, 0.137719f, -0.117809f, -0.105727f, -0.090799f, 0.091193f, 0.019584f, 0.109411f, 0.059992f, 0.161957f, -0.016851f, 0.126719f, -0.126030f, 0.111410f, -0.144895f, 0.052705f, -0.046927f, 0.072813f, -0.035811f, 0.163213f, 0.014145f, 0.159041f, 0.077799f, 0.044850f, 0.066908f, 0.091217f, -0.006686f, 0.033591f, -0.036023f, 0.161725f, 0.070998f, 0.072325f, 0.035051f, 0.042561f, 0.170394f, -0.051290f, 0.109868f, -0.085975f, 0.147711f, 0.147296f, -0.006684f, -0.138562f, 0.095517f, -0.020431f, -0.060310f, 0.065088f, -0.178760f, -0.137954f, 0.059929f, -0.076891f, 0.002159f, 0.047042f, 0.048507f, -0.071901f, 0.055409f, 0.015167f, -0.180891f, -0.080498f, 0.032283f, 0.140522f, 0.151389f, -0.098240f, -0.125589f, -0.029077f, -0.089878f, 0.066193f, 0.041744f, -0.140336f, -0.103863f, 0.070282f, 0.065444f, -0.002754f, -0.026432f, -0.103724f, 0.078022f, -0.166165f, -0.080628f, 0.147602f, 0.119767f, -0.005119f, 0.073388f, 0.002307f, -0.037268f, 0.076447f, -0.025091f, 0.140566f, -0.140570f, -0.082591f, 0.080611f, -0.043332f, -0.167109f, 0.044573f, -0.017418f, -0.173489f, 0.114838f, 0.002423f, 0.181547f, -0.139905f, 0.069426f, 0.080041f, 0.212392f, -0.094287f, 0.032577f, -0.044818f, 0.054489f, 0.060962f, 0.126748f, 0.038421f, -0.086429f, -0.002044f, -0.066062f, 0.012222f, 0.011800f, -0.042664f, -0.031909f, 0.077792f, -0.064195f, -0.045862f, -0.098748f, 0.105509f, -0.102281f, -0.004288f, -0.100659f, 0.146453f, 0.107360f, 0.134649f, 0.092772f, -0.029499f, -0.076000f, 0.069499f, 0.050359f, -0.059869f, 0.079480f, -0.162852f, -0.199063f, 0.021476f, -0.127404f, -0.059763f, 0.037444f, -0.036927f, 0.111966f, -0.019161f, -0.083052f, 0.169393f, 0.088737f, -0.027741f, 0.090605f, -0.039498f, -0.122668f, 0.011996f, 0.009390f, -0.130030f, -0.035594f, -0.024193f, -0.029412f, -0.099989f, 0.057491f, -0.040323f, 0.022163f, 0.008701f, 0.079468f, 0.128565f, -0.049394f, 0.099691f, -0.133914f, -0.107799f, -0.142874f, -0.054779f, 0.014309f, 0.022140f, -0.021976f, 0.075962f, -0.040234f, -0.035934f, 0.044075f, -0.015838f, 0.072298f, 0.052837f, 0.102380f, 0.132097f, -0.103235f, 0.145653f, 0.024031f, -0.105831f, 0.157255f, -0.034531f, 0.146428f, 0.029997f, -0.104988f, 0.127085f, -0.101664f, 0.058040f, 0.015178f, 0.011655f, -0.196320f, -0.012441f, -0.012475f, -0.030107f, -0.029831f, -0.056973f, 0.194487f, 0.175138f, 0.055422f, 0.011895f, 0.143374f, -0.059872f, -0.082765f, -0.018754f, -0.009350f, 0.099090f, 0.117493f, -0.056968f, -0.025229f, -0.063112f, -0.140492f, -0.178666f, 0.047005f, 0.096284f, -0.013081f, -0.186634f, 0.035950f, 0.074270f, -0.081372f, 0.130277f, 0.082781f, 0.045107f, -0.136605f, -0.081846f, 0.041064f, 0.106120f, 0.099370f, -0.054363f, 0.118330f, -0.193950f, -0.022976f, -0.161287f, -0.198036f, -0.048411f, 0.002251f, -0.014475f, 0.056814f, 0.193783f, -0.115425f, 0.087946f, 0.103749f, 0.038503f, 0.017198f, -0.096108f, -0.092697f, 0.211748f, 0.004904f, 0.179255f, -0.089103f, 0.104090f, -0.176486f, -0.040039f, -0.087672f, 0.017488f, -0.078923f, -0.091204f, -0.082873f, 0.144406f, -0.068533f, -0.053870f, 0.123287f, -0.039580f, 0.055067f, -0.022245f, 0.040518f, -0.094402f, 0.110682f, -0.014776f, -0.045093f, -0.057555f, 0.120159f, -0.001440f, 0.110615f, 0.057317f, -0.107768f, -0.160198f, -0.052597f, 0.112054f, 0.010860f, -0.070395f, 0.057871f, -0.093522f, -0.110262f, -0.007368f, -0.000868f, -0.080189f, 0.043842f, -0.129255f, 0.028935f, -0.032342f, 0.108328f, 0.195393f, 0.052560f, -0.011022f, -0.036363f, 0.056519f, -0.046507f, -0.071194f, 0.045813f, 0.164362f, 0.042259f, 0.053372f, -0.049296f, -0.036117f, -0.043198f, 0.116015f, -0.078559f, -0.093889f, 0.025690f, -0.108853f, -0.040072f, 0.102311f, -0.054147f, -0.137594f, 0.084664f, -0.039547f, -0.143311f, -0.027455f, 0.100679f, 0.048964f, 0.125296f, 0.116691f, -0.128595f, -0.063968f, -0.094420f, 0.146502f, 0.091596f, -0.065265f, 0.033321f, -0.141003f, 0.136997f, -0.090188f, -0.161512f, -0.171759f, 0.007601f, 0.050388f, 0.000434f, 0.162930f, -0.076386f, 0.136866f, -0.075340f, -0.125203f, 0.084659f, 0.160163f, 0.032803f, 0.156256f, 0.022711f, -0.125873f, 0.007149f };
static const float anomaly_model_layer_1_biases[10] = { 0.050663f, -0.051027f, 0.127611f, -0.066835f, -0.022093f, -0.000958f, -0.153975f, -0.087956f, 0.200569f, -0.048231f };
static const float anomaly_model_layer_1_weights[200] = { 0.222777f, 0.197631f, 0.085902f, -0.097871f, -0.049674f, -0.266001f, 0.341823f, -0.287803f, 0.349110f, 0.069938f, 0.202565f, -0.127698f, 0.143301f, 0.126180f, 0.054516f, -0.088275f, -0.095190f, -0.254325f, 0.532726f, -0.118493f, 0.276282f, -0.205767f, 0.013204f, -0.421428f, -0.265296f, -0.149702f, -0.012155f, 0.370302f, 0.120687f, -0.061160f, -0.132914f, -0.007486f, 0.331380f, -0.167067f, 0.142552f, -0.001078f, -0.247965f, 0.375156f, -0.097498f, 0.361815f, 0.192281f, 0.134041f, -0.062007f, 0.239500f, -0.050702f, -0.023428f, 0.017012f, -0.340490f, 0.283563f, -0.064223f, -0.205507f, 0.165223f, -0.129569f, -0.301732f, -0.165067f, 0.328071f, -0.054873f, -0.296633f, 0.382127f, -0.087655f, -0.275817f, -0.175840f, 0.406131f, 0.341877f, -0.275597f, 0.160049f, 0.132911f, -0.180292f, 0.270858f, -0.080212f, -0.321831f, -0.130222f, -0.124010f, -0.224809f, -0.076374f, 0.196384f, -0.255571f, 0.336497f, 0.175526f, 0.005946f, -0.282169f, -0.183571f, -0.046891f, 0.091861f, 0.155701f, 0.344669f, 0.141612f, -0.070926f, -0.011243f, 0.305908f, -0.071464f, 0.176881f, -0.256319f, 0.148851f, 0.329086f, -0.080297f, 0.145476f, -0.079240f, -0.237549f, 0.269125f, -0.158511f, -0.206282f, 0.172567f, 0.076029f, 0.057262f, 0.438129f, 0.413935f, 0.265012f, -0.289802f, -0.261483f, 0.161894f, 0.220083f, -0.119793f, -0.089492f, 0.150568f, 0.459480f, 0.230634f, 0.263268f, -0.191044f, -0.037007f, -0.299102f, -0.065188f, 0.070954f, 0.196412f, -0.060118f, -0.031707f, 0.086349f, 0.414670f, 0.038712f, -0.126287f, 0.313967f, -0.134596f, 0.301208f, -0.207773f, -0.390380f, 0.180573f, 0.101515f, 0.370600f, -0.273549f, -0.205747f, 0.448422f, 0.157991f, -0.234826f, 0.106348f, 0.252153f, -0.263482f, -0.095590f, 0.283026f, -0.285012f, 0.314410f, 0.268638f, 0.018775f, 0.133660f, -0.079978f, 0.411491f, 0.135748f, 0.190860f, 0.080097f, 0.294538f, 0.249885f, 0.203077f, 0.013021f, -0.168885f, 0.136413f, 0.283068f, 0.181111f, -0.242379f, 0.004540f, -0.152301f, -0.257314f, 0.540889f, -0.281090f, 0.205725f, -0.003262f, -0.140772f, 0.120109f, 0.218836f, -0.224174f, -0.420919f, 0.017292f, 0.338836f, -0.231768f, 0.233301f, -0.117912f, 0.341261f, -0.045750f, 0.164023f, 0.061154f, 0.037743f, -0.217778f, 0.431792f, 0.372050f, 0.124345f, -0.047542f, -0.030664f, -0.195424f, -0.076830f, -0.101995f, -0.192073f, 0.282798f };
static const float anomaly_model_layer_2_biases[6] = { 0.158614f, -0.322837f, 0.157963f, 0.048490f, -0.239889f, 0.143997f };
static const float anomaly_model_layer_2_weights[60] = { 0.144612f, 0.334182f, -0.227669f, -0.303661f, -0.516793f, 0.547301f, -0.571161f, 0.670431f, -0.396551f, 0.018106f, 0.216700f, -0.306372f, -0.114243f, -0.515373f, 0.442402f, 0.043119f, 0.161570f, -0.012160f, -0.481475f, 0.026837f, -0.426693f, 0.527094f, -0.149306f, 0.199028f, 0.480793f, 0.564372f, -0.530666f, 0.093633f, -0.098847f, -0.366244f, 0.242938f, -0.693613f, -0.271916f, 0.179316f, 0.319661f, -0.419263f, 0.180476f, 0.423581f, -0.327499f, -0.025979f, 0.435040f, 0.169453f, -0.308215f, -0.711556f, -0.341408f, -0.499652f, 0.458862f, 0.055567f, -0.333813f, -0.005724f, 0.494684f, 0.422643f, -0.732817f, -0.445896f, 0.462649f, 0.772612f, 0.258937f, -0.571987f, 0.381497f, 0.249928f };
static float anomaly_model_buf1[102];
static float anomaly_model_buf2[102];
static const EmlNetLayer anomaly_model_layers[3] = { 
{ 20, 102, anomaly_model_layer_0_weights, anomaly_model_layer_0_biases, EmlNetActivationRelu }, 
{ 10, 20, anomaly_model_layer_1_weights, anomaly_model_layer_1_biases, EmlNetActivationRelu }, 
{ 6, 10, anomaly_model_layer_2_weights, anomaly_model_layer_2_biases, EmlNetActivationSoftmax } };
static EmlNet anomaly_model = { 3, anomaly_model_layers, anomaly_model_buf1, anomaly_model_buf2, 102 };

    int32_t
    anomaly_model_predict(const float *features, int32_t n_features)
    {
        return eml_net_predict(&anomaly_model, features, n_features);
    }
    

    int32_t
    anomaly_model_regress(const float *features, int32_t n_features, float *out, int32_t out_length)
    {
        return eml_net_regress(&anomaly_model, features, n_features, out, out_length);
    }
    

    float
    anomaly_model_regress1(const float *features, int32_t n_features)
    {
        return eml_net_regress1(&anomaly_model, features, n_features);
    }
    